network unknown {
}
variable allocated_mb_per_interval_1p {
    type discrete [ 2 ] { 0, 1 };
}
variable app_host_with_cpu_1p {
    type discrete [ 2 ] { 0, 1 };
}
variable app_memory_allocation_1p {
    type discrete [ 2 ] { 0, 1 };
}
variable app_pri_ram_1p {
    type discrete [ 2 ] { 0, 1 };
}
variable apt_no_mq_1p {
    type discrete [ 2 ] { 0, 1 };
}
variable avg_gc_usage_1p {
    type discrete [ 2 ] { 0, 1 };
}
variable code_heap_nonprofiled_methods_1p {
    type discrete [ 2 ] { 0, 1 };
}
variable concurrent_apex_error_1p {
    type discrete [ 2 ] { 0, 1 };
}
variable conn_pool_waits_1p {
    type discrete [ 2 ] { 0, 1 };
}
variable db_act_1p {
    type discrete [ 2 ] { 0, 1 };
}
variable db_cpu_1p {
    type discrete [ 2 ] { 0, 1 };
}
variable db_total_time_1p {
    type discrete [ 2 ] { 0, 1 };
}
variable file_open_top_5_avg_1p {
    type discrete [ 2 ] { 0, 1 };
}
variable gack_count_1p {
    type discrete [ 2 ] { 0, 1 };
}
variable jetty_qtp_busy_threads_1p {
    type discrete [ 2 ] { 0, 1 };
}
variable jvm_uptime_1p {
    type discrete [ 2 ] { 0, 1 };
}
variable mem_promoted_1p {
    type discrete [ 2 ] { 0, 1 };
}
variable old_gen_size_1p {
    type discrete [ 2 ] { 0, 1 };
}
variable ping_status_1p {
    type discrete [ 2 ] { 0, 1 };
}
variable safepoint-time_1p {
    type discrete [ 2 ] { 0, 1 };
}
variable successful_logins_1p {
    type discrete [ 2 ] { 0, 1 };
}
variable thread_count_top_10_1p {
    type discrete [ 2 ] { 0, 1 };
}
variable top_10_avg_cpu_1p {
    type discrete [ 2 ] { 0, 1 };
}
variable trust_request_count_1p {
    type discrete [ 2 ] { 0, 1 };
}
variable trust_request_nomq_count_1p {
    type discrete [ 2 ] { 0, 1 };
}
variable young_pause_time_1p {
    type discrete [ 2 ] { 0, 1 };
}
probability ( allocated_mb_per_interval_1p | safepoint-time_1p, young_pause_time_1p ) {
    table 0.9879823703640718, 0.44508368200836823, 0.8879823703640718, 0.11111111111111116, 0.012017629635928178, 0.5549163179916318, 0.11201762963592818, 0.8888888888888888 ;
}
probability ( app_host_with_cpu_1p | db_cpu_1p, file_open_top_5_avg_1p, gack_count_1p, jetty_qtp_busy_threads_1p, thread_count_top_10_1p, top_10_avg_cpu_1p ) {
    table 0.99, 0.89, 0.7607913669064748, 0.5, 0.08333333333333337, 0.010000000000000009, 0.010000000000000009, 0.010000000000000009, 0.89, 0.79, 0.6607913669064748, 0.4, 0.010000000000000009, 0.010000000000000009, 0.010000000000000009, 0.010000000000000009, 0.8571428571428572, 0.7571428571428571, 0.6607913669064748, 0.4, 0.010000000000000009, 0.010000000000000009, 0.010000000000000009, 0.010000000000000009, 0.7571428571428571, 0.5, 0.5607913669064748, 0.30000000000000004, 0.010000000000000009, 0.010000000000000009, 0.010000000000000009, 0.010000000000000009, 0.89, 0.79, 0.5, 0.4, 0.010000000000000009, 0.010000000000000009, 0.010000000000000009, 0.010000000000000009, 0.7692307692307692, 0.5, 0.4, 0.30000000000000004, 0.010000000000000009, 0.010000000000000009, 0.010000000000000009, 0.010000000000000009, 0.7571428571428571, 0.5, 0.4, 0.30000000000000004, 0.010000000000000009, 0.010000000000000009, 0.010000000000000009, 0.010000000000000009, 0.6571428571428571, 0.4, 0.30000000000000004, 0.20000000000000007, 0.010000000000000009, 0.010000000000000009, 0.010000000000000009, 0.010000000000000009, 0.01, 0.11, 0.2392086330935252, 0.5, 0.9166666666666666, 0.99, 0.99, 0.99, 0.11, 0.21000000000000002, 0.3392086330935252, 0.6, 0.99, 0.99, 0.99, 0.99, 0.14285714285714285, 0.24285714285714285, 0.3392086330935252, 0.6, 0.99, 0.99, 0.99, 0.99, 0.24285714285714285, 0.5, 0.4392086330935252, 0.7, 0.99, 0.99, 0.99, 0.99, 0.11, 0.21000000000000002, 0.5, 0.6, 0.99, 0.99, 0.99, 0.99, 0.23076923076923078, 0.5, 0.6, 0.7, 0.99, 0.99, 0.99, 0.99, 0.24285714285714285, 0.5, 0.6, 0.7, 0.99, 0.99, 0.99, 0.99, 0.34285714285714286, 0.6, 0.7, 0.7999999999999999, 0.99, 0.99, 0.99, 0.99 ;
}
probability ( app_memory_allocation_1p | allocated_mb_per_interval_1p, file_open_top_5_avg_1p, old_gen_size_1p, ping_status_1p, safepoint-time_1p, thread_count_top_10_1p, young_pause_time_1p ) {
    table 0.99, 0.89, 0.89, 0.79, 0.89, 0.5, 0.79, 0.4, 0.89, 0.5, 0.79, 0.4, 0.79, 0.4, 0.5, 0.30000000000000004, 0.89, 0.79, 0.79, 0.5, 0.79, 0.4, 0.69, 0.30000000000000004, 0.79, 0.4, 0.69, 0.30000000000000004, 0.69, 0.30000000000000004, 0.4, 0.20000000000000007, 0.89, 0.5, 0.79, 0.4, 0.5, 0.4, 0.4, 0.30000000000000004, 0.79, 0.4, 0.69, 0.30000000000000004, 0.4, 0.30000000000000004, 0.010000000000000009, 0.010000000000000009, 0.79, 0.4, 0.69, 0.30000000000000004, 0.4, 0.30000000000000004, 0.30000000000000004, 0.20000000000000007, 0.69, 0.30000000000000004, 0.59, 0.20000000000000007, 0.30000000000000004, 0.20000000000000007, 0.010000000000000009, 0.010000000000000009, 0.89, 0.79, 0.5, 0.4, 0.6666666666666667, 0.4, 0.4, 0.30000000000000004, 0.5, 0.4, 0.4, 0.30000000000000004, 0.4, 0.30000000000000004, 0.30000000000000004, 0.20000000000000007, 0.79, 0.69, 0.4, 0.30000000000000004, 0.5, 0.30000000000000004, 0.30000000000000004, 0.20000000000000007, 0.4, 0.30000000000000004, 0.30000000000000004, 0.20000000000000007, 0.30000000000000004, 0.20000000000000007, 0.20000000000000007, 0.10000000000000009, 0.79, 0.4, 0.4, 0.30000000000000004, 0.4, 0.30000000000000004, 0.30000000000000004, 0.010000000000000009, 0.4, 0.30000000000000004, 0.30000000000000004, 0.20000000000000007, 0.30000000000000004, 0.20000000000000007, 0.010000000000000009, 0.010000000000000009, 0.5, 0.30000000000000004, 0.30000000000000004, 0.20000000000000007, 0.30000000000000004, 0.20000000000000007, 0.20000000000000007, 0.010000000000000009, 0.30000000000000004, 0.20000000000000007, 0.20000000000000007, 0.10000000000000009, 0.20000000000000007, 0.10000000000000009, 0.010000000000000009, 0.010000000000000009, 0.01, 0.11, 0.11, 0.21000000000000002, 0.11, 0.5, 0.21000000000000002, 0.6, 0.11, 0.5, 0.21000000000000002, 0.6, 0.21000000000000002, 0.6, 0.5, 0.7, 0.11, 0.21000000000000002, 0.21000000000000002, 0.5, 0.21000000000000002, 0.6, 0.31000000000000005, 0.7, 0.21000000000000002, 0.6, 0.31000000000000005, 0.7, 0.31000000000000005, 0.7, 0.6, 0.7999999999999999, 0.11, 0.5, 0.21000000000000002, 0.6, 0.5, 0.6, 0.6, 0.7, 0.21000000000000002, 0.6, 0.31000000000000005, 0.7, 0.6, 0.7, 0.99, 0.99, 0.21000000000000002, 0.6, 0.31000000000000005, 0.7, 0.6, 0.7, 0.7, 0.7999999999999999, 0.31000000000000005, 0.7, 0.41000000000000003, 0.7999999999999999, 0.7, 0.7999999999999999, 0.99, 0.99, 0.11, 0.21000000000000002, 0.5, 0.6, 0.3333333333333333, 0.6, 0.6, 0.7, 0.5, 0.6, 0.6, 0.7, 0.6, 0.7, 0.7, 0.7999999999999999, 0.21000000000000002, 0.31000000000000005, 0.6, 0.7, 0.5, 0.7, 0.7, 0.7999999999999999, 0.6, 0.7, 0.7, 0.7999999999999999, 0.7, 0.7999999999999999, 0.7999999999999999, 0.8999999999999999, 0.21000000000000002, 0.6, 0.6, 0.7, 0.6, 0.7, 0.7, 0.99, 0.6, 0.7, 0.7, 0.7999999999999999, 0.7, 0.7999999999999999, 0.99, 0.99, 0.5, 0.7, 0.7, 0.7999999999999999, 0.7, 0.7999999999999999, 0.7999999999999999, 0.99, 0.7, 0.7999999999999999, 0.7999999999999999, 0.8999999999999999, 0.7999999999999999, 0.8999999999999999, 0.99, 0.99 ;
}
probability ( app_pri_ram_1p | avg_gc_usage_1p, code_heap_nonprofiled_methods_1p, concurrent_apex_error_1p, db_cpu_1p, file_open_top_5_avg_1p, mem_promoted_1p, ping_status_1p, successful_logins_1p ) {
    table 0.99, 0.89, 0.89, 0.79, 0.89, 0.79, 0.79, 0.5, 0.89, 0.79, 0.79, 0.69, 0.79, 0.5, 0.69, 0.4, 0.89, 0.79, 0.79, 0.5, 0.79, 0.69, 0.5, 0.4, 0.79, 0.69, 0.5, 0.4, 0.5, 0.4, 0.4, 0.30000000000000004, 0.89, 0.79, 0.5, 0.4, 0.79, 0.69, 0.4, 0.30000000000000004, 0.79, 0.5, 0.4, 0.30000000000000004, 0.5, 0.4, 0.30000000000000004, 0.20000000000000007, 0.79, 0.69, 0.4, 0.30000000000000004, 0.69, 0.5, 0.30000000000000004, 0.20000000000000007, 0.5, 0.4, 0.30000000000000004, 0.20000000000000007, 0.4, 0.30000000000000004, 0.20000000000000007, 0.10000000000000009, 0.89, 0.79, 0.79, 0.69, 0.79, 0.69, 0.69, 0.4, 0.79, 0.69, 0.69, 0.59, 0.69, 0.4, 0.59, 0.30000000000000004, 0.5, 0.4, 0.4, 0.30000000000000004, 0.4, 0.30000000000000004, 0.30000000000000004, 0.20000000000000007, 0.4, 0.30000000000000004, 0.30000000000000004, 0.20000000000000007, 0.30000000000000004, 0.20000000000000007, 0.20000000000000007, 0.10000000000000009, 0.79, 0.69, 0.4, 0.30000000000000004, 0.5, 0.4, 0.30000000000000004, 0.20000000000000007, 0.5, 0.4, 0.30000000000000004, 0.20000000000000007, 0.4, 0.30000000000000004, 0.20000000000000007, 0.10000000000000009, 0.4, 0.30000000000000004, 0.30000000000000004, 0.20000000000000007, 0.30000000000000004, 0.20000000000000007, 0.20000000000000007, 0.10000000000000009, 0.30000000000000004, 0.20000000000000007, 0.20000000000000007, 0.10000000000000009, 0.20000000000000007, 0.10000000000000009, 0.10000000000000009, 0.010000000000000009, 0.89, 0.5, 0.5, 0.4, 0.5, 0.4, 0.4, 0.30000000000000004, 0.5, 0.4, 0.4, 0.30000000000000004, 0.4, 0.30000000000000004, 0.30000000000000004, 0.20000000000000007, 0.5, 0.4, 0.4, 0.30000000000000004, 0.4, 0.30000000000000004, 0.30000000000000004, 0.20000000000000007, 0.4, 0.30000000000000004, 0.30000000000000004, 0.20000000000000007, 0.30000000000000004, 0.20000000000000007, 0.20000000000000007, 0.10000000000000009, 0.5, 0.4, 0.4, 0.30000000000000004, 0.4, 0.30000000000000004, 0.30000000000000004, 0.20000000000000007, 0.4, 0.30000000000000004, 0.30000000000000004, 0.20000000000000007, 0.30000000000000004, 0.20000000000000007, 0.20000000000000007, 0.10000000000000009, 0.4, 0.30000000000000004, 0.30000000000000004, 0.20000000000000007, 0.30000000000000004, 0.20000000000000007, 0.20000000000000007, 0.10000000000000009, 0.30000000000000004, 0.20000000000000007, 0.20000000000000007, 0.10000000000000009, 0.20000000000000007, 0.10000000000000009, 0.10000000000000009, 0.010000000000000009, 0.5, 0.4, 0.4, 0.30000000000000004, 0.4, 0.30000000000000004, 0.30000000000000004, 0.20000000000000007, 0.4, 0.30000000000000004, 0.30000000000000004, 0.20000000000000007, 0.30000000000000004, 0.20000000000000007, 0.20000000000000007, 0.10000000000000009, 0.4, 0.30000000000000004, 0.30000000000000004, 0.20000000000000007, 0.30000000000000004, 0.20000000000000007, 0.20000000000000007, 0.10000000000000009, 0.30000000000000004, 0.20000000000000007, 0.20000000000000007, 0.10000000000000009, 0.20000000000000007, 0.10000000000000009, 0.10000000000000009, 0.010000000000000009, 0.4, 0.30000000000000004, 0.30000000000000004, 0.20000000000000007, 0.30000000000000004, 0.20000000000000007, 0.20000000000000007, 0.10000000000000009, 0.30000000000000004, 0.20000000000000007, 0.20000000000000007, 0.10000000000000009, 0.20000000000000007, 0.10000000000000009, 0.10000000000000009, 0.010000000000000009, 0.30000000000000004, 0.20000000000000007, 0.20000000000000007, 0.10000000000000009, 0.20000000000000007, 0.10000000000000009, 0.10000000000000009, 0.010000000000000009, 0.20000000000000007, 0.10000000000000009, 0.10000000000000009, 0.010000000000000009, 0.10000000000000009, 0.010000000000000009, 0.010000000000000009, 0.010000000000000009, 0.01, 0.11, 0.11, 0.21000000000000002, 0.11, 0.21000000000000002, 0.21000000000000002, 0.5, 0.11, 0.21000000000000002, 0.21000000000000002, 0.31000000000000005, 0.21000000000000002, 0.5, 0.31000000000000005, 0.6, 0.11, 0.21000000000000002, 0.21000000000000002, 0.5, 0.21000000000000002, 0.31000000000000005, 0.5, 0.6, 0.21000000000000002, 0.31000000000000005, 0.5, 0.6, 0.5, 0.6, 0.6, 0.7, 0.11, 0.21000000000000002, 0.5, 0.6, 0.21000000000000002, 0.31000000000000005, 0.6, 0.7, 0.21000000000000002, 0.5, 0.6, 0.7, 0.5, 0.6, 0.7, 0.7999999999999999, 0.21000000000000002, 0.31000000000000005, 0.6, 0.7, 0.31000000000000005, 0.5, 0.7, 0.7999999999999999, 0.5, 0.6, 0.7, 0.7999999999999999, 0.6, 0.7, 0.7999999999999999, 0.8999999999999999, 0.11, 0.21000000000000002, 0.21000000000000002, 0.31000000000000005, 0.21000000000000002, 0.31000000000000005, 0.31000000000000005, 0.6, 0.21000000000000002, 0.31000000000000005, 0.31000000000000005, 0.41000000000000003, 0.31000000000000005, 0.6, 0.41000000000000003, 0.7, 0.5, 0.6, 0.6, 0.7, 0.6, 0.7, 0.7, 0.7999999999999999, 0.6, 0.7, 0.7, 0.7999999999999999, 0.7, 0.7999999999999999, 0.7999999999999999, 0.8999999999999999, 0.21000000000000002, 0.31000000000000005, 0.6, 0.7, 0.5, 0.6, 0.7, 0.7999999999999999, 0.5, 0.6, 0.7, 0.7999999999999999, 0.6, 0.7, 0.7999999999999999, 0.8999999999999999, 0.6, 0.7, 0.7, 0.7999999999999999, 0.7, 0.7999999999999999, 0.7999999999999999, 0.8999999999999999, 0.7, 0.7999999999999999, 0.7999999999999999, 0.8999999999999999, 0.7999999999999999, 0.8999999999999999, 0.8999999999999999, 0.99, 0.11, 0.5, 0.5, 0.6, 0.5, 0.6, 0.6, 0.7, 0.5, 0.6, 0.6, 0.7, 0.6, 0.7, 0.7, 0.7999999999999999, 0.5, 0.6, 0.6, 0.7, 0.6, 0.7, 0.7, 0.7999999999999999, 0.6, 0.7, 0.7, 0.7999999999999999, 0.7, 0.7999999999999999, 0.7999999999999999, 0.8999999999999999, 0.5, 0.6, 0.6, 0.7, 0.6, 0.7, 0.7, 0.7999999999999999, 0.6, 0.7, 0.7, 0.7999999999999999, 0.7, 0.7999999999999999, 0.7999999999999999, 0.8999999999999999, 0.6, 0.7, 0.7, 0.7999999999999999, 0.7, 0.7999999999999999, 0.7999999999999999, 0.8999999999999999, 0.7, 0.7999999999999999, 0.7999999999999999, 0.8999999999999999, 0.7999999999999999, 0.8999999999999999, 0.8999999999999999, 0.99, 0.5, 0.6, 0.6, 0.7, 0.6, 0.7, 0.7, 0.7999999999999999, 0.6, 0.7, 0.7, 0.7999999999999999, 0.7, 0.7999999999999999, 0.7999999999999999, 0.8999999999999999, 0.6, 0.7, 0.7, 0.7999999999999999, 0.7, 0.7999999999999999, 0.7999999999999999, 0.8999999999999999, 0.7, 0.7999999999999999, 0.7999999999999999, 0.8999999999999999, 0.7999999999999999, 0.8999999999999999, 0.8999999999999999, 0.99, 0.6, 0.7, 0.7, 0.7999999999999999, 0.7, 0.7999999999999999, 0.7999999999999999, 0.8999999999999999, 0.7, 0.7999999999999999, 0.7999999999999999, 0.8999999999999999, 0.7999999999999999, 0.8999999999999999, 0.8999999999999999, 0.99, 0.7, 0.7999999999999999, 0.7999999999999999, 0.8999999999999999, 0.7999999999999999, 0.8999999999999999, 0.8999999999999999, 0.99, 0.7999999999999999, 0.8999999999999999, 0.8999999999999999, 0.99, 0.8999999999999999, 0.99, 0.99, 0.99 ;
}
probability ( apt_no_mq_1p | app_host_with_cpu_1p, conn_pool_waits_1p, db_act_1p, db_total_time_1p, successful_logins_1p, top_10_avg_cpu_1p ) {
    table 0.9886676185466295, 0.8886676185466296, 0.8886676185466296, 0.7886676185466296, 0.8886676185466296, 0.6666666666666667, 0.7886676185466296, 0.5, 0.8886676185466296, 0.7886676185466296, 0.7886676185466296, 0.6886676185466296, 0.7886676185466296, 0.010000000000000009, 0.6886676185466296, 0.010000000000000009, 0.8886676185466296, 0.7886676185466296, 0.7886676185466296, 0.5, 0.7886676185466296, 0.5, 0.5, 0.4, 0.7886676185466296, 0.5, 0.5, 0.4, 0.010000000000000009, 0.010000000000000009, 0.010000000000000009, 0.010000000000000009, 0.8886676185466296, 0.6666666666666667, 0.7540983606557377, 0.5, 0.7886676185466296, 0.5, 0.65, 0.4, 0.5, 0.4, 0.4, 0.30000000000000004, 0.4, 0.010000000000000009, 0.30000000000000004, 0.010000000000000009, 0.5, 0.4, 0.4, 0.30000000000000004, 0.4, 0.30000000000000004, 0.30000000000000004, 0.20000000000000007, 0.4, 0.30000000000000004, 0.30000000000000004, 0.20000000000000007, 0.010000000000000009, 0.010000000000000009, 0.010000000000000009, 0.010000000000000009, 0.011332381453370406, 0.1113323814533704, 0.1113323814533704, 0.2113323814533704, 0.1113323814533704, 0.3333333333333333, 0.2113323814533704, 0.5, 0.1113323814533704, 0.2113323814533704, 0.2113323814533704, 0.3113323814533704, 0.2113323814533704, 0.99, 0.3113323814533704, 0.99, 0.1113323814533704, 0.2113323814533704, 0.2113323814533704, 0.5, 0.2113323814533704, 0.5, 0.5, 0.6, 0.2113323814533704, 0.5, 0.5, 0.6, 0.99, 0.99, 0.99, 0.99, 0.1113323814533704, 0.3333333333333333, 0.2459016393442623, 0.5, 0.2113323814533704, 0.5, 0.35, 0.6, 0.5, 0.6, 0.6, 0.7, 0.6, 0.99, 0.7, 0.99, 0.5, 0.6, 0.6, 0.7, 0.6, 0.7, 0.7, 0.7999999999999999, 0.6, 0.7, 0.7, 0.7999999999999999, 0.99, 0.99, 0.99, 0.99 ;
}
probability ( avg_gc_usage_1p | code_heap_nonprofiled_methods_1p, db_total_time_1p, gack_count_1p, top_10_avg_cpu_1p, trust_request_count_1p ) {
    table 0.99, 0.89, 0.89, 0.5, 0.89, 0.79, 0.79, 0.4, 0.89, 0.79, 0.79, 0.4, 0.79, 0.5, 0.69, 0.30000000000000004, 0.89, 0.79, 0.79, 0.4, 0.79, 0.5, 0.5, 0.30000000000000004, 0.79, 0.5, 0.69, 0.30000000000000004, 0.69, 0.4, 0.4, 0.20000000000000007, 0.01, 0.11, 0.11, 0.5, 0.11, 0.21000000000000002, 0.21000000000000002, 0.6, 0.11, 0.21000000000000002, 0.21000000000000002, 0.6, 0.21000000000000002, 0.5, 0.31000000000000005, 0.7, 0.11, 0.21000000000000002, 0.21000000000000002, 0.6, 0.21000000000000002, 0.5, 0.5, 0.7, 0.21000000000000002, 0.5, 0.31000000000000005, 0.7, 0.31000000000000005, 0.6, 0.6, 0.7999999999999999 ;
}
probability ( code_heap_nonprofiled_methods_1p | db_total_time_1p, safepoint-time_1p ) {
    table 0.9720156113012246, 0.28205128205128205, 0.8720156113012245, 0.18205128205128207, 0.02798438869877542, 0.717948717948718, 0.12798438869877543, 0.8179487179487179 ;
}
probability ( concurrent_apex_error_1p | conn_pool_waits_1p, gack_count_1p, successful_logins_1p ) {
    table 0.99, 0.89, 0.89, 0.79, 0.89, 0.79, 0.5, 0.4, 0.01, 0.11, 0.11, 0.21000000000000002, 0.11, 0.21000000000000002, 0.5, 0.6 ;
}
probability ( conn_pool_waits_1p ) {
    table 0.99, 0.01 ;
}
probability ( db_act_1p | conn_pool_waits_1p, db_cpu_1p, db_total_time_1p, jetty_qtp_busy_threads_1p, ping_status_1p ) {
    table 0.9810337065597816, 0.8810337065597815, 0.8810337065597815, 0.6136363636363636, 0.8810337065597815, 0.7810337065597815, 0.7810337065597815, 0.5136363636363637, 0.7405764966740577, 0.5, 0.6405764966740577, 0.010000000000000009, 0.6405764966740577, 0.4, 0.5, 0.010000000000000009, 0.8810337065597815, 0.7810337065597815, 0.5, 0.4, 0.7810337065597815, 0.5, 0.010000000000000009, 0.010000000000000009, 0.5, 0.4, 0.4, 0.010000000000000009, 0.4, 0.30000000000000004, 0.010000000000000009, 0.010000000000000009, 0.018966293440218416, 0.11896629344021842, 0.11896629344021842, 0.38636363636363635, 0.11896629344021842, 0.21896629344021842, 0.21896629344021842, 0.48636363636363633, 0.25942350332594233, 0.5, 0.3594235033259423, 0.99, 0.3594235033259423, 0.6, 0.5, 0.99, 0.11896629344021842, 0.21896629344021842, 0.5, 0.6, 0.21896629344021842, 0.5, 0.99, 0.99, 0.5, 0.6, 0.6, 0.99, 0.6, 0.7, 0.99, 0.99 ;
}
probability ( db_cpu_1p | db_total_time_1p, ping_status_1p, top_10_avg_cpu_1p, trust_request_count_1p, trust_request_nomq_count_1p ) {
    table 0.99, 0.89, 0.89, 0.79, 0.89, 0.5, 0.5, 0.4, 0.89, 0.79, 0.5, 0.4, 0.625, 0.4, 0.4, 0.30000000000000004, 0.89, 0.79, 0.5, 0.4, 0.79, 0.4, 0.4, 0.30000000000000004, 0.79, 0.5, 0.4, 0.30000000000000004, 0.010000000000000009, 0.010000000000000009, 0.010000000000000009, 0.010000000000000009, 0.01, 0.11, 0.11, 0.21000000000000002, 0.11, 0.5, 0.5, 0.6, 0.11, 0.21000000000000002, 0.5, 0.6, 0.375, 0.6, 0.6, 0.7, 0.11, 0.21000000000000002, 0.5, 0.6, 0.21000000000000002, 0.6, 0.6, 0.7, 0.21000000000000002, 0.5, 0.6, 0.7, 0.99, 0.99, 0.99, 0.99 ;
}
probability ( db_total_time_1p | conn_pool_waits_1p, gack_count_1p ) {
    table 0.9767562781939038, 0.8767562781939038, 0.8767562781939038, 0.5, 0.023243721806096206, 0.12324372180609622, 0.12324372180609622, 0.5 ;
}
probability ( file_open_top_5_avg_1p | jetty_qtp_busy_threads_1p, thread_count_top_10_1p, trust_request_nomq_count_1p ) {
    table 0.99, 0.89, 0.5907172995780591, 0.4907172995780591, 0.89, 0.79, 0.4907172995780591, 0.3907172995780591, 0.01, 0.11, 0.4092827004219409, 0.5092827004219409, 0.11, 0.21000000000000002, 0.5092827004219409, 0.6092827004219409 ;
}
probability ( gack_count_1p ) {
    table 0.9823068648812643, 0.017693135118735694 ;
}
probability ( jetty_qtp_busy_threads_1p ) {
    table 0.99, 0.01 ;
}
probability ( jvm_uptime_1p | code_heap_nonprofiled_methods_1p, jetty_qtp_busy_threads_1p, successful_logins_1p, thread_count_top_10_1p, trust_request_count_1p ) {
    table 0.9891017466860413, 0.8891017466860414, 0.8891017466860414, 0.5, 0.8891017466860414, 0.7891017466860413, 0.7891017466860413, 0.4, 0.8891017466860414, 0.5, 0.7891017466860413, 0.4, 0.7891017466860413, 0.4, 0.6891017466860413, 0.30000000000000004, 0.8891017466860414, 0.7891017466860413, 0.7891017466860413, 0.4, 0.7891017466860413, 0.5, 0.6891017466860413, 0.30000000000000004, 0.7891017466860413, 0.4, 0.6891017466860413, 0.30000000000000004, 0.6891017466860413, 0.30000000000000004, 0.5891017466860413, 0.20000000000000007, 0.010898253313958661, 0.11089825331395867, 0.11089825331395867, 0.5, 0.11089825331395867, 0.21089825331395867, 0.21089825331395867, 0.6, 0.11089825331395867, 0.5, 0.21089825331395867, 0.6, 0.21089825331395867, 0.6, 0.3108982533139587, 0.7, 0.11089825331395867, 0.21089825331395867, 0.21089825331395867, 0.6, 0.21089825331395867, 0.5, 0.3108982533139587, 0.7, 0.21089825331395867, 0.6, 0.3108982533139587, 0.7, 0.3108982533139587, 0.7, 0.4108982533139587, 0.7999999999999999 ;
}
probability ( mem_promoted_1p | gack_count_1p, successful_logins_1p ) {
    table 0.975260830611832, 0.875260830611832, 0.875260830611832, 0.686046511627907, 0.024739169388167972, 0.12473916938816798, 0.12473916938816798, 0.313953488372093 ;
}
probability ( old_gen_size_1p | code_heap_nonprofiled_methods_1p, file_open_top_5_avg_1p, jetty_qtp_busy_threads_1p, mem_promoted_1p, ping_status_1p, safepoint-time_1p, thread_count_top_10_1p ) {
    table 0.99, 0.7321428571428572, 0.89, 0.5, 0.89, 0.6321428571428571, 0.5, 0.4, 0.89, 0.6321428571428571, 0.5, 0.4, 0.79, 0.5, 0.4, 0.30000000000000004, 0.8421052631578947, 0.6321428571428571, 0.5, 0.4, 0.6363636363636364, 0.5, 0.010000000000000009, 0.010000000000000009, 0.5, 0.4, 0.4, 0.30000000000000004, 0.4, 0.30000000000000004, 0.010000000000000009, 0.010000000000000009, 0.89, 0.3854961832061069, 0.5, 0.2854961832061069, 0.5625, 0.22033898305084743, 0.4, 0.12033898305084745, 0.79, 0.010000000000000009, 0.4, 0.010000000000000009, 0.010000000000000009, 0.010000000000000009, 0.010000000000000009, 0.010000000000000009, 0.5, 0.010000000000000009, 0.4, 0.010000000000000009, 0.010000000000000009, 0.010000000000000009, 0.010000000000000009, 0.010000000000000009, 0.4, 0.010000000000000009, 0.30000000000000004, 0.010000000000000009, 0.010000000000000009, 0.010000000000000009, 0.010000000000000009, 0.010000000000000009, 0.7524235645041014, 0.6321428571428571, 0.010000000000000009, 0.010000000000000009, 0.6524235645041014, 0.010000000000000009, 0.010000000000000009, 0.010000000000000009, 0.3846153846153846, 0.16666666666666663, 0.010000000000000009, 0.010000000000000009, 0.2846153846153846, 0.010000000000000009, 0.010000000000000009, 0.010000000000000009, 0.6524235645041014, 0.4285714285714286, 0.010000000000000009, 0.010000000000000009, 0.10344827586206895, 0.010000000000000009, 0.010000000000000009, 0.010000000000000009, 0.2846153846153846, 0.06666666666666665, 0.010000000000000009, 0.010000000000000009, 0.010000000000000009, 0.010000000000000009, 0.010000000000000009, 0.010000000000000009, 0.6524235645041014, 0.061224489795918324, 0.010000000000000009, 0.010000000000000009, 0.4625, 0.010000000000000009, 0.010000000000000009, 0.010000000000000009, 0.2846153846153846, 0.010000000000000009, 0.010000000000000009, 0.010000000000000009, 0.010000000000000009, 0.010000000000000009, 0.010000000000000009, 0.010000000000000009, 0.010000000000000009, 0.010000000000000009, 0.010000000000000009, 0.010000000000000009, 0.010000000000000009, 0.010000000000000009, 0.010000000000000009, 0.010000000000000009, 0.010000000000000009, 0.010000000000000009, 0.010000000000000009, 0.010000000000000009, 0.010000000000000009, 0.010000000000000009, 0.010000000000000009, 0.010000000000000009, 0.01, 0.26785714285714285, 0.11, 0.5, 0.11, 0.3678571428571429, 0.5, 0.6, 0.11, 0.3678571428571429, 0.5, 0.6, 0.21000000000000002, 0.5, 0.6, 0.7, 0.15789473684210525, 0.3678571428571429, 0.5, 0.6, 0.36363636363636365, 0.5, 0.99, 0.99, 0.5, 0.6, 0.6, 0.7, 0.6, 0.7, 0.99, 0.99, 0.11, 0.6145038167938931, 0.5, 0.7145038167938931, 0.4375, 0.7796610169491526, 0.6, 0.8796610169491526, 0.21000000000000002, 0.99, 0.6, 0.99, 0.99, 0.99, 0.99, 0.99, 0.5, 0.99, 0.6, 0.99, 0.99, 0.99, 0.99, 0.99, 0.6, 0.99, 0.7, 0.99, 0.99, 0.99, 0.99, 0.99, 0.24757643549589858, 0.3678571428571429, 0.99, 0.99, 0.34757643549589856, 0.99, 0.99, 0.99, 0.6153846153846154, 0.8333333333333334, 0.99, 0.99, 0.7153846153846154, 0.99, 0.99, 0.99, 0.34757643549589856, 0.5714285714285714, 0.99, 0.99, 0.896551724137931, 0.99, 0.99, 0.99, 0.7153846153846154, 0.9333333333333333, 0.99, 0.99, 0.99, 0.99, 0.99, 0.99, 0.34757643549589856, 0.9387755102040817, 0.99, 0.99, 0.5375, 0.99, 0.99, 0.99, 0.7153846153846154, 0.99, 0.99, 0.99, 0.99, 0.99, 0.99, 0.99, 0.99, 0.99, 0.99, 0.99, 0.99, 0.99, 0.99, 0.99, 0.99, 0.99, 0.99, 0.99, 0.99, 0.99, 0.99, 0.99 ;
}
probability ( ping_status_1p | mem_promoted_1p, safepoint-time_1p, successful_logins_1p ) {
    table 0.98183911731697, 0.8818391173169701, 0.8666666666666667, 0.7666666666666666, 0.8818391173169701, 0.7818391173169701, 0.25, 0.15000000000000002, 0.018160882683029924, 0.11816088268302993, 0.13333333333333333, 0.23333333333333334, 0.11816088268302993, 0.21816088268302994, 0.75, 0.85 ;
}
probability ( safepoint-time_1p | young_pause_time_1p ) {
    table 0.99, 0.99, 0.01, 0.01 ;
}
probability ( successful_logins_1p | gack_count_1p, jetty_qtp_busy_threads_1p, top_10_avg_cpu_1p ) {
    table 0.9722723937461195, 0.8722723937461195, 0.7740585774058577, 0.6740585774058577, 0.8722723937461195, 0.4, 0.6740585774058577, 0.30000000000000004, 0.027727606253880453, 0.12772760625388047, 0.22594142259414227, 0.32594142259414227, 0.12772760625388047, 0.6, 0.32594142259414227, 0.7 ;
}
probability ( thread_count_top_10_1p | code_heap_nonprofiled_methods_1p ) {
    table 0.99, 0.7435897435897436, 0.01, 0.2564102564102564 ;
}
probability ( top_10_avg_cpu_1p | trust_request_count_1p ) {
    table 0.99, 0.99, 0.01, 0.01 ;
}
probability ( trust_request_count_1p | trust_request_nomq_count_1p ) {
    table 0.99, 0.2551546391752577, 0.01, 0.7448453608247423 ;
}
probability ( trust_request_nomq_count_1p ) {
    table 0.99, 0.01 ;
}
probability ( young_pause_time_1p ) {
    table 0.9735085638635298, 0.0264914361364702 ;
}
