network unknown {
}
variable ROOT_db {
    type discrete [ 2 ] { 0, 1 };
    property weight = None ;
}
variable ROOT_pod {
    type discrete [ 2 ] { 0, 1 };
    property weight = None ;
}
variable apt {
    type discrete [ 2 ] { 0, 1 };
}
variable avg_cpu {
    type discrete [ 2 ] { 0, 1 };
}
variable conn_pool {
    type discrete [ 2 ] { 0, 1 };
}
variable db {
    type discrete [ 2 ] { 0, 1 };
    property weight = None ;
}
variable gc {
    type discrete [ 2 ] { 0, 1 };
}
variable gen_size {
    type discrete [ 2 ] { 0, 1 };
}
variable pod {
    type discrete [ 2 ] { 0, 1 };
}
variable request {
    type discrete [ 2 ] { 0, 1 };
}
probability ( ROOT_db ) {
    table 0.48, 0.52 ;
}
probability ( ROOT_pod ) {
    table 0.49, 0.51 ;
}
probability ( apt | avg_cpu, conn_pool, request ) {
    table 0.9745119657565341, 0.8745119657565341, 0.8745119657565341, 0.7745119657565341, 0.8745119657565341, 0.7745119657565341, 0.7745119657565341, 0.6745119657565342, 0.025488034243465855, 0.12548803424346586, 0.12548803424346586, 0.22548803424346586, 0.12548803424346586, 0.22548803424346586, 0.22548803424346586, 0.32548803424346584 ;
}
probability ( avg_cpu | conn_pool, gc, gen_size, pod, request ) {
    table 0.99, 0.89, 0.89, 0.79, 0.89, 0.79, 0.79, 0.5, 0.89, 0.5, 0.79, 0.4, 0.79, 0.4, 0.69, 0.30000000000000004, 0.89, 0.79, 0.79, 0.5, 0.79, 0.69, 0.69, 0.4, 0.79, 0.4, 0.69, 0.30000000000000004, 0.69, 0.30000000000000004, 0.59, 0.20000000000000007, 0.01, 0.11, 0.11, 0.21000000000000002, 0.11, 0.21000000000000002, 0.21000000000000002, 0.5, 0.11, 0.5, 0.21000000000000002, 0.6, 0.21000000000000002, 0.6, 0.31000000000000005, 0.7, 0.11, 0.21000000000000002, 0.21000000000000002, 0.5, 0.21000000000000002, 0.31000000000000005, 0.31000000000000005, 0.6, 0.21000000000000002, 0.6, 0.31000000000000005, 0.7, 0.31000000000000005, 0.7, 0.41000000000000003, 0.7999999999999999 ;
}
probability ( conn_pool ) {
    table 0.776735645873654, 0.2232643541263461 ;
}
probability ( db | ROOT_db ) {
    table 0.99, 0.01, 0.010000000000000009, 0.99 ;
}
probability ( gc | conn_pool, gen_size, pod, request ) {
    table 0.99, 0.89, 0.89, 0.79, 0.7941176470588236, 0.6941176470588235, 0.6632653061224489, 0.5, 0.89, 0.79, 0.79, 0.5, 0.6941176470588235, 0.5941176470588235, 0.5185185185185186, 0.4, 0.01, 0.11, 0.11, 0.21000000000000002, 0.20588235294117646, 0.3058823529411765, 0.336734693877551, 0.5, 0.11, 0.21000000000000002, 0.21000000000000002, 0.5, 0.3058823529411765, 0.40588235294117647, 0.48148148148148145, 0.6 ;
}
probability ( gen_size ) {
    table 0.9739963277256711, 0.02600367227432882 ;
}
probability ( pod | ROOT_pod ) {
    table 0.99, 0.01, 0.010000000000000009, 0.99 ;
}
probability ( request ) {
    table 0.9867996625477644, 0.013200337452235622 ;
}
